SVM-light Version V6.20
0 # kernel type
3 # kernel parameter -d 
1 # kernel parameter -g 
1 # kernel parameter -s 
1 # kernel parameter -r 
empty# kernel parameter -u 
40 # highest feature index 
57 # number of training documents 
2 # number of support vectors plus 1 
0 # threshold b, each following line is a SV (starting with alpha*y)
1 1:0.40854788 2:0.36406612 3:0.36406612 4:0.72813225 5:0.33564255 6:0.62888581 7:0.67281955 8:1.2937174 9:0.32912645 10:0.20389725 11:0.801898 12:0.89474803 13:-0.19237325 14:0.42909771 15:0.45336741 16:0.97621769 17:0.8191601 18:0.12760009 19:0.10212424 20:0.24662721 21:-0.12691979 22:-0.023076314 23:-0.0141022 24:-0.077562086 25:0.67335069 26:0.22641742 27:0.27969068 28:0.42026654 29:0.4576458 30:0.20373191 31:0.23153403 32:0.19934589 33:0.34263939 34:0.68943334 35:-0.39610052 36:-0.013914355 37:-2.8521459e-011 #
