SVM-light Version V6.20
0 # kernel type
3 # kernel parameter -d 
1 # kernel parameter -g 
1 # kernel parameter -s 
1 # kernel parameter -r 
empty# kernel parameter -u 
44 # highest feature index 
68 # number of training documents 
2 # number of support vectors plus 1 
0 # threshold b, each following line is a SV (starting with alpha*y)
1 1:1.5330225 2:0.88665229 3:0.88665229 4:1.7733046 5:1.6914325 6:0.5574649 7:0.56070143 8:1.1172439 9:1.805445 10:0.62166226 11:0.53522593 12:1.2301958 13:0.6364516 14:0.32020435 15:1.6824702 16:1.8498445 17:1.2853738 18:0.55702752 19:0.50636071 20:1.0679244 21:0.99812204 22:0.17489086 23:0.21469629 24:0.4209961 29:0.31830645 30:0.31776315 31:0.2944105 32:0.20931056 33:0.29323021 34:0.31259727 35:0.32923582 36:0.20759355 37:0.25098968 38:0.39532906 39:0.18977742 40:-0.054475319 42:-0.054475319 43:-0.16642281 #
